net
{
	propagationenginegenerator1791944048146838126L = "edu.ucla.belief.approx.BeliefPropagationSettings@13816e0";
	huginenginegenerator3061656038650325130L = "edu.ucla.belief.inference.JoinTreeSettings@1d5ebc";
	recoveryenginegenerator6944530267470113528l = "edu.ucla.util.SettingsImpl@165e55e";
	node_size = (130.0 55.0);
}

node FutureIncome
{
	states = ("Promising" "Not_promising" );
	position = (-20 -386);
	excludepolicy = "include whole CPT";
	DSLxEXTRA_DEFINITIONxRANKED = "false";
	ismapvariable = "false";
	ID = "FutureIncome";
	DSLxPOSITIONxHEIGHT = "30";
	label = "Future Income";
	DSLxTYPE = "CPT";
	DSLxEXTRA_DEFINITIONxMANDATORY = "false";
	DSLxEXTRA_DEFINITIONxDIAGNOSIS_TYPE = "AUXILIARY";
	DSLxPOSITIONxWIDTH = "90";
	diagnosistype = "AUXILIARY";
}
node PaymentHistory
{
	states = ("Excellent" "Acceptable" "Unacceptable" );
	position = (159 -208);
	excludepolicy = "include whole CPT";
	DSLxEXTRA_DEFINITIONxRANKED = "false";
	ismapvariable = "false";
	ID = "PaymentHistory";
	DSLxPOSITIONxHEIGHT = "30";
	DSLxTYPE = "CPT";
	label = "Payment History";
	DSLxEXTRA_DEFINITIONxDIAGNOSIS_TYPE = "AUXILIARY";
	DSLxEXTRA_DEFINITIONxMANDATORY = "false";
	DSLxPOSITIONxWIDTH = "93";
	diagnosistype = "AUXILIARY";
}
node Income
{
	states = ("High" "Medium" "Low" );
	position = (-16 -208);
	excludepolicy = "include whole CPT";
	DSLxEXTRA_DEFINITIONxRANKED = "false";
	ismapvariable = "false";
	ID = "Profession";
	DSLxPOSITIONxHEIGHT = "30";
	DSLxTYPE = "CPT";
	label = "Income";
	DSLxEXTRA_DEFINITIONxDIAGNOSIS_TYPE = "AUXILIARY";
	DSLxEXTRA_DEFINITIONxMANDATORY = "false";
	DSLxPOSITIONxWIDTH = "83";
	diagnosistype = "AUXILIARY";
}
node DebtIncomeRatio
{
	states = ("Low" "High" );
	position = (-19 -297);
	excludepolicy = "include whole CPT";
	DSLxEXTRA_DEFINITIONxRANKED = "false";
	ismapvariable = "false";
	ID = "RatioDebInc";
	DSLxPOSITIONxHEIGHT = "30";
	DSLxTYPE = "CPT";
	label = "Ratio of Debts To Income";
	DSLxEXTRA_DEFINITIONxDIAGNOSIS_TYPE = "AUXILIARY";
	DSLxEXTRA_DEFINITIONxMANDATORY = "false";
	DSLxPOSITIONxWIDTH = "81";
	diagnosistype = "AUXILIARY";
}
node Assets
{
	states = ("High" "Medium" "Low" );
	position = (154 -305);
	excludepolicy = "include whole CPT";
	DSLxEXTRA_DEFINITIONxRANKED = "false";
	ismapvariable = "false";
	ID = "Worth";
	DSLxPOSITIONxHEIGHT = "30";
	label = "Assets";
	DSLxTYPE = "CPT";
	DSLxEXTRA_DEFINITIONxMANDATORY = "false";
	DSLxEXTRA_DEFINITIONxDIAGNOSIS_TYPE = "AUXILIARY";
	DSLxPOSITIONxWIDTH = "70";
	diagnosistype = "AUXILIARY";
}
node Reliability
{
	states = ("Reliable" "Unreliable" );
	position = (345 -306);
	excludepolicy = "include whole CPT";
	DSLxEXTRA_DEFINITIONxRANKED = "false";
	ismapvariable = "false";
	ID = "Reliability";
	DSLxPOSITIONxHEIGHT = "30";
	DSLxTYPE = "CPT";
	label = "Reliability";
	DSLxEXTRA_DEFINITIONxDIAGNOSIS_TYPE = "AUXILIARY";
	DSLxEXTRA_DEFINITIONxMANDATORY = "false";
	DSLxPOSITIONxWIDTH = "70";
	diagnosistype = "AUXILIARY";
}
node Age
{
	states = ("Between16and21" "Between22and64" "Over65" );
	position = (340 -208);
	excludepolicy = "include whole CPT";
	DSLxEXTRA_DEFINITIONxRANKED = "false";
	ismapvariable = "false";
	ID = "Age";
	DSLxPOSITIONxHEIGHT = "30";
	DSLxTYPE = "CPT";
	label = "Age";
	DSLxEXTRA_DEFINITIONxDIAGNOSIS_TYPE = "AUXILIARY";
	DSLxEXTRA_DEFINITIONxMANDATORY = "false";
	DSLxPOSITIONxWIDTH = "70";
	diagnosistype = "AUXILIARY";
}
node CreditWorthiness
{
	states = ("Positive" "Negative" );
	position = (158 -390);
	excludepolicy = "include whole CPT";
	DSLxEXTRA_DEFINITIONxRANKED = "false";
	ismapvariable = "false";
	ID = "CreditWorthiness";
	DSLxPOSITIONxHEIGHT = "30";
	label = "Credit Worthiness";
	DSLxTYPE = "CPT";
	DSLxEXTRA_DEFINITIONxMANDATORY = "false";
	DSLxEXTRA_DEFINITIONxDIAGNOSIS_TYPE = "AUXILIARY";
	DSLxPOSITIONxWIDTH = "100";
	diagnosistype = "AUXILIARY";
}
potential ( FutureIncome | Income Assets )
{
	data = (((	0.9	0.1	)
		(	0.8	0.2	)
		(	0.7	0.3	))
		((	0.6	0.4	)
		(	0.5	0.5	)
		(	0.4	0.6	))
		((	0.5	0.5	)
		(	0.4	0.6	)
		(	0.3	0.7	)));
}
potential ( PaymentHistory | Age DebtIncomeRatio )
{
	data = (((	0.2	0.3	0.5	)
		(	0.15	0.25	0.6	))
		((	0.3333333333333333	0.3333333333333333	0.3333333333333333	)
		(	0.3	0.3	0.4	))
		((	0.6000000000000001	0.30000000000000004	0.10000000000000002	)
		(	0.55	0.25	0.2	)));
}
potential ( Income | )
{
	data = (	0.3333333333333333	0.3333333333333333	0.3333333333333333	);
}
potential ( DebtIncomeRatio | )
{
	data = (	0.5	0.5	);
}
potential ( Assets | Income )
{
	data = ((	0.7000000000000001	0.20000000000000004	0.10000000000000002	)
		(	0.3333333333333333	0.3333333333333333	0.3333333333333333	)
		(	0.1	0.2	0.7	));
}
potential ( Reliability | PaymentHistory Age )
{
	data = (((	0.7	0.3	)
		(	0.8	0.2	)
		(	0.9	0.1	))
		((	0.4	0.6	)
		(	0.5	0.5	)
		(	0.6	0.4	))
		((	0.1	0.9	)
		(	0.2	0.8	)
		(	0.3	0.7	)));
}
potential ( Age | )
{
	data = (	0.3333333333333333	0.3333333333333333	0.3333333333333333	);
}
potential ( CreditWorthiness | Reliability FutureIncome DebtIncomeRatio )
{
	data = ((((	0.9	0.1	)
		(	0.8	0.2	))
		((	0.8	0.2	)
		(	0.7	0.3	)))
		(((	0.5	0.5	)
		(	0.4	0.6	))
		((	0.4	0.6	)
		(	0.3	0.7	))));
}
